<?xml version="1.0"?>
<opencv_storage>
<stage1>
  <maxWeakCount>23</maxWeakCount>
  <stageThreshold>-1.8559123277664185e+00</stageThreshold>
  <weakClassifiers>
    <_>
      <internalNodes>
        0 -1 162695 1.5229946002364159e-03</internalNodes>
      <leafValues>
        -3.1527465581893921e-01 6.2444114685058594e-01</leafValues></_>
    <_>
      <internalNodes>
        0 -1 43267 -1.4287510421127081e-03</internalNodes>
      <leafValues>
        5.0649267435073853e-01 -2.0348215103149414e-01</leafValues></_>
    <_>
      <internalNodes>
        0 -1 105368 1.6915686428546906e-03</internalNodes>
      <leafValues>
        1.7644253373146057e-01 -5.9184205532073975e-01</leafValues></_>
    <_>
      <internalNodes>
        0 -1 20088 -1.7720034811645746e-03</internalNodes>
      <leafValues>
        5.9576386213302612e-01 -2.3547667264938354e-01</leafValues></_>
    <_>
      <internalNodes>
        0 -1 162171 -3.6622295156121254e-03</internalNodes>
      <leafValues>
        5.9656119346618652e-01 -7.1295566856861115e-02</leafValues></_>
    <_>
      <internalNodes>
        0 -1 137482 8.2129985094070435e-03</internalNodes>
      <leafValues>
        1.0790224373340607e-01 -7.5782626867294312e-01</leafValues></_>
    <_>
      <internalNodes>
        0 -1 151124 -1.6491633141413331e-03</internalNodes>
      <leafValues>
        -6.7954701185226440e-01 9.9159196019172668e-02</leafValues></_>
    <_>
      <internalNodes>
        0 -1 170434 2.3319849278777838e-03</internalNodes>
      <leafValues>
        -1.8529830873012543e-01 5.0019311904907227e-01</leafValues></_>
    <_>
      <internalNodes>
        0 -1 170613 -2.4424868170171976e-03</internalNodes>
      <leafValues>
        6.3375848531723022e-01 -1.6615627706050873e-01</leafValues></_>
    <_>
      <internalNodes>
        0 -1 151738 1.1235540732741356e-03</internalNodes>
      <leafValues>
        -1.9572667777538300e-01 3.6887618899345398e-01</leafValues></_>
    <_>
      <internalNodes>
        0 -1 14897 3.2921154052019119e-03</internalNodes>
      <leafValues>
        -1.2808406352996826e-01 5.3376120328903198e-01</leafValues></_>
    <_>
      <internalNodes>
        0 -1 86811 -1.2141680344939232e-02</internalNodes>
      <leafValues>
        -6.4479595422744751e-01 1.3357447087764740e-01</leafValues></_>
    <_>
      <internalNodes>
        0 -1 43828 -1.1004973202943802e-03</internalNodes>
      <leafValues>
        2.9190170764923096e-01 -2.6077413558959961e-01</leafValues></_>
    <_>
      <internalNodes>
        0 -1 72852 -9.9385365843772888e-02</internalNodes>
      <leafValues>
        4.8488742113113403e-01 -1.1201104521751404e-01</leafValues></_>
    <_>
      <internalNodes>
        0 -1 137643 -3.0895715579390526e-02</internalNodes>
      <leafValues>
        4.2184171080589294e-01 -1.9179098308086395e-01</leafValues></_>
    <_>
      <internalNodes>
        0 -1 175448 7.8488280996680260e-03</internalNodes>
      <leafValues>
        -9.3284852802753448e-02 6.7982190847396851e-01</leafValues></_>
    <_>
      <internalNodes>
        0 -1 170801 6.1118602752685547e-04</internalNodes>
      <leafValues>
        -1.9717182219028473e-01 3.2375419139862061e-01</leafValues></_>
    <_>
      <internalNodes>
        0 -1 175664 -2.7585630305111408e-03</internalNodes>
      <leafValues>
        8.6286938190460205e-01 -7.2887331247329712e-02</leafValues></_>
    <_>
      <internalNodes>
        0 -1 104915 -8.3022639155387878e-03</internalNodes>
      <leafValues>
        -7.4560457468032837e-01 1.1900137364864349e-01</leafValues></_>
    <_>
      <internalNodes>
        0 -1 175800 -5.2436105906963348e-03</internalNodes>
      <leafValues>
        6.0651373863220215e-01 -1.5019406378269196e-01</leafValues></_>
    <_>
      <internalNodes>
        0 -1 17435 7.4331220239400864e-03</internalNodes>
      <leafValues>
        -9.7525879740715027e-02 5.6426966190338135e-01</leafValues></_>
    <_>
      <internalNodes>
        0 -1 161831 -2.5359280407428741e-03</internalNodes>
      <leafValues>
        -5.8601611852645874e-01 1.2951728701591492e-01</leafValues></_>
    <_>
      <internalNodes>
        0 -1 2229 5.5719870328903198e-01</internalNodes>
      <leafValues>
        4.6252496540546417e-02 -8.8563102483749390e-01</leafValues></_></weakClassifiers></stage1>
</opencv_storage>
