<?xml version="1.0"?>
<opencv_storage>
<stage8>
  <maxWeakCount>86</maxWeakCount>
  <stageThreshold>-1.3377618789672852e+00</stageThreshold>
  <weakClassifiers>
    <_>
      <internalNodes>
        0 -1 162418 8.7721284944564104e-04</internalNodes>
      <leafValues>
        -1.9948767125606537e-01 2.1654501557350159e-01</leafValues></_>
    <_>
      <internalNodes>
        0 -1 151237 -1.6404977068305016e-03</internalNodes>
      <leafValues>
        -5.3905206918716431e-01 7.8869134187698364e-02</leafValues></_>
    <_>
      <internalNodes>
        0 -1 122440 1.3624198036268353e-03</internalNodes>
      <leafValues>
        8.0091625452041626e-02 -4.9072974920272827e-01</leafValues></_>
    <_>
      <internalNodes>
        0 -1 175910 -5.3446460515260696e-03</internalNodes>
      <leafValues>
        4.4026955962181091e-01 -5.5114503949880600e-02</leafValues></_>
    <_>
      <internalNodes>
        0 -1 177889 1.3014222495257854e-02</internalNodes>
      <leafValues>
        -1.4431357383728027e-01 2.6424208283424377e-01</leafValues></_>
    <_>
      <internalNodes>
        0 -1 133046 -3.2860614359378815e-02</internalNodes>
      <leafValues>
        3.1493437290191650e-01 -9.9854834377765656e-02</leafValues></_>
    <_>
      <internalNodes>
        0 -1 87670 -2.2362554445862770e-03</internalNodes>
      <leafValues>
        -4.7703054547309875e-01 5.4411482065916061e-02</leafValues></_>
    <_>
      <internalNodes>
        0 -1 107168 -1.7660724552115425e-05</internalNodes>
      <leafValues>
        1.8811164796352386e-01 -1.7701080441474915e-01</leafValues></_>
    <_>
      <internalNodes>
        0 -1 117311 -4.3796133249998093e-03</internalNodes>
      <leafValues>
        3.3793553709983826e-01 -1.0529283434152603e-01</leafValues></_>
    <_>
      <internalNodes>
        0 -1 151237 6.6560774575918913e-04</internalNodes>
      <leafValues>
        1.0959838330745697e-01 -3.0007234215736389e-01</leafValues></_>
    <_>
      <internalNodes>
        0 -1 175664 2.9536634683609009e-03</internalNodes>
      <leafValues>
        -6.2276348471641541e-02 4.9588572978973389e-01</leafValues></_>
    <_>
      <internalNodes>
        0 -1 84524 -1.5254872851073742e-02</internalNodes>
      <leafValues>
        -4.6971753239631653e-01 5.0295069813728333e-02</leafValues></_>
    <_>
      <internalNodes>
        0 -1 170977 4.3074446148239076e-04</internalNodes>
      <leafValues>
        -1.4688779413700104e-01 1.7758014798164368e-01</leafValues></_>
    <_>
      <internalNodes>
        0 -1 106695 4.7471113502979279e-03</internalNodes>
      <leafValues>
        -1.5149101614952087e-01 2.3269021511077881e-01</leafValues></_>
    <_>
      <internalNodes>
        0 -1 170251 7.7868485823273659e-04</internalNodes>
      <leafValues>
        -1.2153887003660202e-01 1.9658660888671875e-01</leafValues></_>
    <_>
      <internalNodes>
        0 -1 98936 3.2478102948516607e-03</internalNodes>
      <leafValues>
        -9.0631090104579926e-02 3.0168145895004272e-01</leafValues></_>
    <_>
      <internalNodes>
        0 -1 178050 -2.0483927801251411e-03</internalNodes>
      <leafValues>
        3.7419047951698303e-01 -5.3770735859870911e-02</leafValues></_>
    <_>
      <internalNodes>
        0 -1 123282 -1.1040235403925180e-03</internalNodes>
      <leafValues>
        -3.0253794789314270e-01 8.2445621490478516e-02</leafValues></_>
    <_>
      <internalNodes>
        0 -1 134702 1.1398662626743317e-01</internalNodes>
      <leafValues>
        1.8801711499691010e-02 -8.2834756374359131e-01</leafValues></_>
    <_>
      <internalNodes>
        0 -1 162049 1.7721648328006268e-03</internalNodes>
      <leafValues>
        -2.0232376456260681e-01 1.0919431596994400e-01</leafValues></_>
    <_>
      <internalNodes>
        0 -1 139525 3.1100131309358403e-05</internalNodes>
      <leafValues>
        -1.3979344069957733e-01 1.6878810524940491e-01</leafValues></_>
    <_>
      <internalNodes>
        0 -1 139014 -8.2983076572418213e-03</internalNodes>
      <leafValues>
        -5.3168004751205444e-01 4.2355064302682877e-02</leafValues></_>
    <_>
      <internalNodes>
        0 -1 19433 2.5960218627005816e-03</internalNodes>
      <leafValues>
        -5.5908724665641785e-02 4.0566274523735046e-01</leafValues></_>
    <_>
      <internalNodes>
        0 -1 109144 3.6638695746660233e-04</internalNodes>
      <leafValues>
        -1.0749560594558716e-01 1.9858157634735107e-01</leafValues></_>
    <_>
      <internalNodes>
        0 -1 172948 -3.2380677293986082e-04</internalNodes>
      <leafValues>
        -2.7434229850769043e-01 8.4074720740318298e-02</leafValues></_>
    <_>
      <internalNodes>
        0 -1 172948 3.5377623862586915e-04</internalNodes>
      <leafValues>
        1.0757653415203094e-01 -3.1351885199546814e-01</leafValues></_>
    <_>
      <internalNodes>
        0 -1 108792 -1.4160922728478909e-03</internalNodes>
      <leafValues>
        2.3475125432014465e-01 -1.0343619436025620e-01</leafValues></_>
    <_>
      <internalNodes>
        0 -1 18764 2.6022731326520443e-03</internalNodes>
      <leafValues>
        -4.6974536031484604e-02 4.0289598703384399e-01</leafValues></_>
    <_>
      <internalNodes>
        0 -1 106939 -1.1458909139037132e-02</internalNodes>
      <leafValues>
        -2.9261893033981323e-01 7.6184622943401337e-02</leafValues></_>
    <_>
      <internalNodes>
        0 -1 86813 -1.3970120562589727e-05</internalNodes>
      <leafValues>
        1.0705710947513580e-01 -2.0535163581371307e-01</leafValues></_>
    <_>
      <internalNodes>
        0 -1 118488 5.6329031940549612e-04</internalNodes>
      <leafValues>
        -1.7174957692623138e-01 1.3179214298725128e-01</leafValues></_>
    <_>
      <internalNodes>
        0 -1 122781 -3.4437649883329868e-03</internalNodes>
      <leafValues>
        -3.0236369371414185e-01 7.5325489044189453e-02</leafValues></_>
    <_>
      <internalNodes>
        0 -1 42083 -1.9862893968820572e-03</internalNodes>
      <leafValues>
        1.3832676410675049e-01 -1.6868703067302704e-01</leafValues></_>
    <_>
      <internalNodes>
        0 -1 43815 1.6106870025396347e-03</internalNodes>
      <leafValues>
        -7.8835867345333099e-02 2.8948113322257996e-01</leafValues></_>
    <_>
      <internalNodes>
        0 -1 139036 -4.3352070497348905e-04</internalNodes>
      <leafValues>
        1.4733633399009705e-01 -1.5808959305286407e-01</leafValues></_>
    <_>
      <internalNodes>
        0 -1 137099 -1.3078982941806316e-02</internalNodes>
      <leafValues>
        2.5654098391532898e-01 -1.0292353481054306e-01</leafValues></_>
    <_>
      <internalNodes>
        0 -1 162684 5.5258261272683740e-04</internalNodes>
      <leafValues>
        7.9581148922443390e-02 -3.5097968578338623e-01</leafValues></_>
    <_>
      <internalNodes>
        0 -1 162959 5.6714133825153112e-04</internalNodes>
      <leafValues>
        7.3477372527122498e-02 -3.1229153275489807e-01</leafValues></_>
    <_>
      <internalNodes>
        0 -1 163237 4.1177393868565559e-03</internalNodes>
      <leafValues>
        -5.4865960031747818e-02 4.7168394923210144e-01</leafValues></_>
    <_>
      <internalNodes>
        0 -1 84581 1.4262467622756958e-02</internalNodes>
      <leafValues>
        7.1491099894046783e-02 -3.3969521522521973e-01</leafValues></_>
    <_>
      <internalNodes>
        0 -1 15630 -4.6013267710804939e-03</internalNodes>
      <leafValues>
        2.7092072367668152e-01 -7.9548090696334839e-02</leafValues></_>
    <_>
      <internalNodes>
        0 -1 13924 -1.7073199851438403e-03</internalNodes>
      <leafValues>
        1.9546139240264893e-01 -1.2160333245992661e-01</leafValues></_>
    <_>
      <internalNodes>
        0 -1 136134 -2.5174260139465332e-02</internalNodes>
      <leafValues>
        2.7759176492691040e-01 -7.6835885643959045e-02</leafValues></_>
    <_>
      <internalNodes>
        0 -1 14336 2.1340150386095047e-02</internalNodes>
      <leafValues>
        -7.6538316905498505e-02 3.0586960911750793e-01</leafValues></_>
    <_>
      <internalNodes>
        0 -1 104421 -1.7773495987057686e-02</internalNodes>
      <leafValues>
        -4.3054580688476562e-01 4.8696428537368774e-02</leafValues></_>
    <_>
      <internalNodes>
        0 -1 106090 -6.5976716578006744e-03</internalNodes>
      <leafValues>
        -8.2594454288482666e-01 1.9815338775515556e-02</leafValues></_>
    <_>
      <internalNodes>
        0 -1 18036 1.8165266374126077e-03</internalNodes>
      <leafValues>
        -6.9837309420108795e-02 3.0220055580139160e-01</leafValues></_>
    <_>
      <internalNodes>
        0 -1 141112 4.8727227840572596e-04</internalNodes>
      <leafValues>
        -1.0226637125015259e-01 1.8711745738983154e-01</leafValues></_>
    <_>
      <internalNodes>
        0 -1 141126 -7.0664042141288519e-04</internalNodes>
      <leafValues>
        2.1795713901519775e-01 -1.0181146860122681e-01</leafValues></_>
    <_>
      <internalNodes>
        0 -1 153712 3.5886731348000467e-04</internalNodes>
      <leafValues>
        8.7895348668098450e-02 -2.8543666005134583e-01</leafValues></_>
    <_>
      <internalNodes>
        0 -1 86110 4.8698419705033302e-03</internalNodes>
      <leafValues>
        5.3161390125751495e-02 -3.6297452449798584e-01</leafValues></_>
    <_>
      <internalNodes>
        0 -1 170422 -5.7755336165428162e-03</internalNodes>
      <leafValues>
        4.6300989389419556e-01 -4.4625606387853622e-02</leafValues></_>
    <_>
      <internalNodes>
        0 -1 108358 2.8647322324104607e-05</internalNodes>
      <leafValues>
        -1.3800927996635437e-01 1.4491184055805206e-01</leafValues></_>
    <_>
      <internalNodes>
        0 -1 106580 -3.0566094210371375e-05</internalNodes>
      <leafValues>
        1.2654390931129456e-01 -1.5655441582202911e-01</leafValues></_>
    <_>
      <internalNodes>
        0 -1 139015 3.3256961614824831e-05</internalNodes>
      <leafValues>
        -1.9648216664791107e-01 1.1341790854930878e-01</leafValues></_>
    <_>
      <internalNodes>
        0 -1 86984 -7.6542788883671165e-04</internalNodes>
      <leafValues>
        1.6790351271629333e-01 -1.2423478066921234e-01</leafValues></_>
    <_>
      <internalNodes>
        0 -1 88409 1.8090225057676435e-04</internalNodes>
      <leafValues>
        -1.3266630470752716e-01 1.7639394104480743e-01</leafValues></_>
    <_>
      <internalNodes>
        0 -1 106190 -2.0622864831238985e-03</internalNodes>
      <leafValues>
        -4.8816648125648499e-01 3.8406714797019958e-02</leafValues></_>
    <_>
      <internalNodes>
        0 -1 88299 5.3673791699111462e-03</internalNodes>
      <leafValues>
        4.5664872974157333e-02 -4.1266912221908569e-01</leafValues></_>
    <_>
      <internalNodes>
        0 -1 161997 -1.5791833400726318e-02</internalNodes>
      <leafValues>
        2.9248255491256714e-01 -7.4411191046237946e-02</leafValues></_>
    <_>
      <internalNodes>
        0 -1 162964 -3.6095581890549511e-05</internalNodes>
      <leafValues>
        1.5686142444610596e-01 -1.4138041436672211e-01</leafValues></_>
    <_>
      <internalNodes>
        0 -1 49776 4.2813189793378115e-04</internalNodes>
      <leafValues>
        9.2409431934356689e-02 -2.0915657281875610e-01</leafValues></_>
    <_>
      <internalNodes>
        0 -1 72108 -1.9709258049260825e-04</internalNodes>
      <leafValues>
        -1.9537194073200226e-01 9.8296858370304108e-02</leafValues></_>
    <_>
      <internalNodes>
        0 -1 116884 -1.1347739025950432e-02</internalNodes>
      <leafValues>
        4.0897485613822937e-01 -5.3049549460411072e-02</leafValues></_>
    <_>
      <internalNodes>
        0 -1 11765 -4.9976550042629242e-02</internalNodes>
      <leafValues>
        2.5014913082122803e-01 -7.4225857853889465e-02</leafValues></_>
    <_>
      <internalNodes>
        0 -1 175763 1.2954460456967354e-02</internalNodes>
      <leafValues>
        -7.6277658343315125e-02 2.9677090048789978e-01</leafValues></_>
    <_>
      <internalNodes>
        0 -1 161849 2.5323873851448298e-03</internalNodes>
      <leafValues>
        -8.3945713937282562e-02 2.4500569701194763e-01</leafValues></_>
    <_>
      <internalNodes>
        0 -1 20046 2.1748185157775879e-02</internalNodes>
      <leafValues>
        4.3332546949386597e-02 -5.4054933786392212e-01</leafValues></_>
    <_>
      <internalNodes>
        0 -1 20908 1.4470919268205762e-03</internalNodes>
      <leafValues>
        -8.7620608508586884e-02 2.2674417495727539e-01</leafValues></_>
    <_>
      <internalNodes>
        0 -1 150774 5.2204634994268417e-04</internalNodes>
      <leafValues>
        8.1459581851959229e-02 -2.5537618994712830e-01</leafValues></_>
    <_>
      <internalNodes>
        0 -1 20811 -2.8101713396608829e-03</internalNodes>
      <leafValues>
        3.5258060693740845e-01 -6.0389693826436996e-02</leafValues></_>
    <_>
      <internalNodes>
        0 -1 162405 -1.4122663742455188e-05</internalNodes>
      <leafValues>
        1.4115072786808014e-01 -1.3605570793151855e-01</leafValues></_>
    <_>
      <internalNodes>
        0 -1 72096 2.9992518830113113e-04</internalNodes>
      <leafValues>
        1.0038801282644272e-01 -1.9887624680995941e-01</leafValues></_>
    <_>
      <internalNodes>
        0 -1 162977 9.7080059349536896e-03</internalNodes>
      <leafValues>
        2.5609701871871948e-02 -7.8251963853836060e-01</leafValues></_>
    <_>
      <internalNodes>
        0 -1 139532 -1.3049229746684432e-03</internalNodes>
      <leafValues>
        1.8756446242332458e-01 -1.0660529881715775e-01</leafValues></_>
    <_>
      <internalNodes>
        0 -1 41384 -1.6351513564586639e-02</internalNodes>
      <leafValues>
        -7.0341861248016357e-01 2.9377566650509834e-02</leafValues></_>
    <_>
      <internalNodes>
        0 -1 42708 -1.4366144314408302e-03</internalNodes>
      <leafValues>
        1.3313463330268860e-01 -1.3189575076103210e-01</leafValues></_>
    <_>
      <internalNodes>
        0 -1 14193 -1.2409957125782967e-02</internalNodes>
      <leafValues>
        2.2247956693172455e-01 -9.3102432787418365e-02</leafValues></_>
    <_>
      <internalNodes>
        0 -1 140648 -2.3857844993472099e-02</internalNodes>
      <leafValues>
        2.3042736947536469e-01 -8.9750051498413086e-02</leafValues></_>
    <_>
      <internalNodes>
        0 -1 87048 -1.1584712192416191e-03</internalNodes>
      <leafValues>
        -3.8254466652870178e-01 5.3577434271574020e-02</leafValues></_>
    <_>
      <internalNodes>
        0 -1 81347 2.4938457645475864e-03</internalNodes>
      <leafValues>
        -4.4538732618093491e-02 4.6887189149856567e-01</leafValues></_>
    <_>
      <internalNodes>
        0 -1 165786 4.6993393334560096e-04</internalNodes>
      <leafValues>
        7.5957052409648895e-02 -2.4787448346614838e-01</leafValues></_>
    <_>
      <internalNodes>
        0 -1 176208 -2.7398613747209311e-03</internalNodes>
      <leafValues>
        4.4566112756729126e-01 -4.1943404823541641e-02</leafValues></_>
    <_>
      <internalNodes>
        0 -1 126539 -6.3898012740537524e-04</internalNodes>
      <leafValues>
        -2.4596482515335083e-01 8.1853494048118591e-02</leafValues></_>
    <_>
      <internalNodes>
        0 -1 177313 1.5257870778441429e-02</internalNodes>
      <leafValues>
        4.4247183948755264e-02 -4.1551676392555237e-01</leafValues></_>
    <_>
      <internalNodes>
        0 -1 108819 -2.5310723576694727e-03</internalNodes>
      <leafValues>
        2.0185579359531403e-01 -9.2896223068237305e-02</leafValues></_></weakClassifiers></stage8>
</opencv_storage>
