<?xml version="1.0"?>
<opencv_storage>
<stage10>
  <maxWeakCount>91</maxWeakCount>
  <stageThreshold>-1.1918952465057373e+00</stageThreshold>
  <weakClassifiers>
    <_>
      <internalNodes>
        0 -1 139138 1.1105937883257866e-03</internalNodes>
      <leafValues>
        -1.8349547684192657e-01 1.8118582665920258e-01</leafValues></_>
    <_>
      <internalNodes>
        0 -1 139007 2.6562035782262683e-04</internalNodes>
      <leafValues>
        1.1852596700191498e-01 -2.5702282786369324e-01</leafValues></_>
    <_>
      <internalNodes>
        0 -1 117327 5.2876081317663193e-03</internalNodes>
      <leafValues>
        -1.5142603218555450e-01 1.8668748438358307e-01</leafValues></_>
    <_>
      <internalNodes>
        0 -1 162413 -7.7922438504174352e-04</internalNodes>
      <leafValues>
        -3.5266506671905518e-01 9.8397396504878998e-02</leafValues></_>
    <_>
      <internalNodes>
        0 -1 105537 3.0784452974330634e-05</internalNodes>
      <leafValues>
        -1.7581126093864441e-01 1.2883217632770538e-01</leafValues></_>
    <_>
      <internalNodes>
        0 -1 103746 -1.3670440763235092e-02</internalNodes>
      <leafValues>
        -5.4579418897628784e-01 2.8904760256409645e-02</leafValues></_>
    <_>
      <internalNodes>
        0 -1 175273 -2.1609105169773102e-02</internalNodes>
      <leafValues>
        3.5991975665092468e-01 -5.7362079620361328e-02</leafValues></_>
    <_>
      <internalNodes>
        0 -1 43828 -1.3917337637394667e-03</internalNodes>
      <leafValues>
        1.9171726703643799e-01 -1.2474319338798523e-01</leafValues></_>
    <_>
      <internalNodes>
        0 -1 106562 -3.3407388255000114e-03</internalNodes>
      <leafValues>
        -5.8577626943588257e-01 3.1629554927349091e-02</leafValues></_>
    <_>
      <internalNodes>
        0 -1 100002 3.3608190715312958e-03</internalNodes>
      <leafValues>
        -5.2487365901470184e-02 5.0163012742996216e-01</leafValues></_>
    <_>
      <internalNodes>
        0 -1 79856 2.6920321397483349e-03</internalNodes>
      <leafValues>
        -6.7430689930915833e-02 3.9500656723976135e-01</leafValues></_>
    <_>
      <internalNodes>
        0 -1 169565 2.3479484021663666e-02</internalNodes>
      <leafValues>
        -7.6055109500885010e-02 2.6293081045150757e-01</leafValues></_>
    <_>
      <internalNodes>
        0 -1 175448 5.6251017376780510e-03</internalNodes>
      <leafValues>
        -9.2180535197257996e-02 2.5199493765830994e-01</leafValues></_>
    <_>
      <internalNodes>
        0 -1 163217 3.5611487692221999e-04</internalNodes>
      <leafValues>
        -1.3657437264919281e-01 1.5895529091358185e-01</leafValues></_>
    <_>
      <internalNodes>
        0 -1 106218 1.2527066282927990e-03</internalNodes>
      <leafValues>
        -1.2672649323940277e-01 2.2473777830600739e-01</leafValues></_>
    <_>
      <internalNodes>
        0 -1 138196 3.4898010198958218e-05</internalNodes>
      <leafValues>
        -1.9268156588077545e-01 1.4120380580425262e-01</leafValues></_>
    <_>
      <internalNodes>
        0 -1 170734 -7.5222006998956203e-03</internalNodes>
      <leafValues>
        -5.8031243085861206e-01 2.5112776085734367e-02</leafValues></_>
    <_>
      <internalNodes>
        0 -1 123133 -2.8531313873827457e-03</internalNodes>
      <leafValues>
        2.0731370151042938e-01 -1.1001260578632355e-01</leafValues></_>
    <_>
      <internalNodes>
        0 -1 141417 -5.1584985340014100e-04</internalNodes>
      <leafValues>
        -3.3266979455947876e-01 7.7893339097499847e-02</leafValues></_>
    <_>
      <internalNodes>
        0 -1 170030 -2.4449501652270555e-03</internalNodes>
      <leafValues>
        2.8536775708198547e-01 -7.3124870657920837e-02</leafValues></_>
    <_>
      <internalNodes>
        0 -1 18173 4.5227147638797760e-03</internalNodes>
      <leafValues>
        -9.1627083718776703e-02 2.3174399137496948e-01</leafValues></_>
    <_>
      <internalNodes>
        0 -1 18885 -2.4774926714599133e-03</internalNodes>
      <leafValues>
        2.3009143769741058e-01 -8.7923869490623474e-02</leafValues></_>
    <_>
      <internalNodes>
        0 -1 20912 -3.6154538393020630e-02</internalNodes>
      <leafValues>
        -4.8655429482460022e-01 4.2397726327180862e-02</leafValues></_>
    <_>
      <internalNodes>
        0 -1 162549 7.8126741573214531e-04</internalNodes>
      <leafValues>
        7.3086805641651154e-02 -2.5310972332954407e-01</leafValues></_>
    <_>
      <internalNodes>
        0 -1 137803 1.4615932013839483e-03</internalNodes>
      <leafValues>
        -1.1210668832063675e-01 1.9313155114650726e-01</leafValues></_>
    <_>
      <internalNodes>
        0 -1 170966 -3.2330608519259840e-05</internalNodes>
      <leafValues>
        1.6391804814338684e-01 -1.7778329551219940e-01</leafValues></_>
    <_>
      <internalNodes>
        0 -1 175791 -4.8364829272031784e-03</internalNodes>
      <leafValues>
        3.6766922473907471e-01 -5.1171917468309402e-02</leafValues></_>
    <_>
      <internalNodes>
        0 -1 85972 8.7482703384011984e-04</internalNodes>
      <leafValues>
        7.4205793440341949e-02 -2.5408399105072021e-01</leafValues></_>
    <_>
      <internalNodes>
        0 -1 15319 -1.1331047862768173e-02</internalNodes>
      <leafValues>
        1.6927005350589752e-01 -1.1220408976078033e-01</leafValues></_>
    <_>
      <internalNodes>
        0 -1 15326 1.7613125964999199e-02</internalNodes>
      <leafValues>
        -9.2433743178844452e-02 2.5854778289794922e-01</leafValues></_>
    <_>
      <internalNodes>
        0 -1 178152 2.7524735778570175e-03</internalNodes>
      <leafValues>
        -4.5608729124069214e-02 3.8167643547058105e-01</leafValues></_>
    <_>
      <internalNodes>
        0 -1 139425 -4.6750565525144339e-04</internalNodes>
      <leafValues>
        1.3242228329181671e-01 -1.4963053166866302e-01</leafValues></_>
    <_>
      <internalNodes>
        0 -1 83080 -1.5596969425678253e-01</internalNodes>
      <leafValues>
        -4.8197451233863831e-01 4.0050890296697617e-02</leafValues></_>
    <_>
      <internalNodes>
        0 -1 162407 -2.6978761889040470e-03</internalNodes>
      <leafValues>
        -7.7892929315567017e-01 1.9814761355519295e-02</leafValues></_>
    <_>
      <internalNodes>
        0 -1 40766 7.1010559797286987e-02</internalNodes>
      <leafValues>
        2.0306924358010292e-02 -6.6258245706558228e-01</leafValues></_>
    <_>
      <internalNodes>
        0 -1 124071 3.7122998037375510e-05</internalNodes>
      <leafValues>
        -1.3062867522239685e-01 1.3458368182182312e-01</leafValues></_>
    <_>
      <internalNodes>
        0 -1 139010 1.3371603017731104e-05</internalNodes>
      <leafValues>
        -1.3766023516654968e-01 1.4483548700809479e-01</leafValues></_>
    <_>
      <internalNodes>
        0 -1 162564 6.3735330477356911e-03</internalNodes>
      <leafValues>
        -9.8656885325908661e-02 1.9893506169319153e-01</leafValues></_>
    <_>
      <internalNodes>
        0 -1 104857 -1.8133459612727165e-02</internalNodes>
      <leafValues>
        2.0407190918922424e-01 -1.2405310571193695e-01</leafValues></_>
    <_>
      <internalNodes>
        0 -1 72901 -1.5314432978630066e-01</internalNodes>
      <leafValues>
        2.6029664278030396e-01 -8.5516124963760376e-02</leafValues></_>
    <_>
      <internalNodes>
        0 -1 52560 1.9579094648361206e-01</internalNodes>
      <leafValues>
        -8.8146395981311798e-02 2.2489346563816071e-01</leafValues></_>
    <_>
      <internalNodes>
        0 -1 170401 3.7548239342868328e-03</internalNodes>
      <leafValues>
        9.6882678568363190e-02 -1.9961574673652649e-01</leafValues></_>
    <_>
      <internalNodes>
        0 -1 140835 5.6112138554453850e-03</internalNodes>
      <leafValues>
        -4.8072982579469681e-02 4.4778758287429810e-01</leafValues></_>
    <_>
      <internalNodes>
        0 -1 12199 -4.0590222924947739e-03</internalNodes>
      <leafValues>
        4.5493590831756592e-01 -3.9930630475282669e-02</leafValues></_>
    <_>
      <internalNodes>
        0 -1 138634 -9.3393377028405666e-04</internalNodes>
      <leafValues>
        -3.3995461463928223e-01 6.2251266092061996e-02</leafValues></_>
    <_>
      <internalNodes>
        0 -1 18272 -1.9509363919496536e-03</internalNodes>
      <leafValues>
        2.6591959595680237e-01 -8.0312147736549377e-02</leafValues></_>
    <_>
      <internalNodes>
        0 -1 107990 1.8210902344435453e-03</internalNodes>
      <leafValues>
        -9.4978652894496918e-02 2.0783862471580505e-01</leafValues></_>
    <_>
      <internalNodes>
        0 -1 107427 -1.5269247815012932e-02</internalNodes>
      <leafValues>
        -5.4310709238052368e-01 3.4952856600284576e-02</leafValues></_>
    <_>
      <internalNodes>
        0 -1 88349 -1.1235706508159637e-02</internalNodes>
      <leafValues>
        -2.8179165720939636e-01 6.6572859883308411e-02</leafValues></_>
    <_>
      <internalNodes>
        0 -1 178086 -3.4630796872079372e-03</internalNodes>
      <leafValues>
        4.3581876158714294e-01 -4.7658380120992661e-02</leafValues></_>
    <_>
      <internalNodes>
        0 -1 107068 -1.0136198252439499e-03</internalNodes>
      <leafValues>
        2.2477340698242188e-01 -8.6413010954856873e-02</leafValues></_>
    <_>
      <internalNodes>
        0 -1 150778 -2.0700716413557529e-03</internalNodes>
      <leafValues>
        -4.9467873573303223e-01 4.5107994228601456e-02</leafValues></_>
    <_>
      <internalNodes>
        0 -1 138189 -3.9876188384369016e-04</internalNodes>
      <leafValues>
        -2.8145018219947815e-01 6.5146341919898987e-02</leafValues></_>
    <_>
      <internalNodes>
        0 -1 20088 -2.0017987117171288e-03</internalNodes>
      <leafValues>
        2.4547182023525238e-01 -8.1434696912765503e-02</leafValues></_>
    <_>
      <internalNodes>
        0 -1 123873 6.6910835448652506e-04</internalNodes>
      <leafValues>
        -1.0515046864748001e-01 1.8347541987895966e-01</leafValues></_>
    <_>
      <internalNodes>
        0 -1 123094 -1.2987689115107059e-03</internalNodes>
      <leafValues>
        2.3637242615222931e-01 -1.0573831200599670e-01</leafValues></_>
    <_>
      <internalNodes>
        0 -1 85858 -1.7855923622846603e-02</internalNodes>
      <leafValues>
        -7.9517883062362671e-01 2.7271298691630363e-02</leafValues></_>
    <_>
      <internalNodes>
        0 -1 38464 3.2618776895105839e-03</internalNodes>
      <leafValues>
        -8.3145290613174438e-02 2.3701037466526031e-01</leafValues></_>
    <_>
      <internalNodes>
        0 -1 60951 -2.0203995518386364e-03</internalNodes>
      <leafValues>
        2.1507690846920013e-01 -9.1930717229843140e-02</leafValues></_>
    <_>
      <internalNodes>
        0 -1 44218 -1.2224417179822922e-02</internalNodes>
      <leafValues>
        -4.0033981204032898e-01 4.5931439846754074e-02</leafValues></_>
    <_>
      <internalNodes>
        0 -1 169658 -1.5453923493623734e-02</internalNodes>
      <leafValues>
        3.7789165973663330e-01 -5.3203206509351730e-02</leafValues></_>
    <_>
      <internalNodes>
        0 -1 137345 -1.8665950847207569e-05</internalNodes>
      <leafValues>
        1.1588427424430847e-01 -1.5676538646221161e-01</leafValues></_>
    <_>
      <internalNodes>
        0 -1 141126 6.2169833108782768e-04</internalNodes>
      <leafValues>
        -1.2238985300064087e-01 1.5862940251827240e-01</leafValues></_>
    <_>
      <internalNodes>
        0 -1 20100 -5.3890598937869072e-03</internalNodes>
      <leafValues>
        4.3762603402137756e-01 -4.3805744498968124e-02</leafValues></_>
    <_>
      <internalNodes>
        0 -1 123681 -1.0124010732397437e-03</internalNodes>
      <leafValues>
        -2.8171741962432861e-01 7.0268779993057251e-02</leafValues></_>
    <_>
      <internalNodes>
        0 -1 138615 1.4396890037460253e-05</internalNodes>
      <leafValues>
        -1.3258275389671326e-01 1.6410677134990692e-01</leafValues></_>
    <_>
      <internalNodes>
        0 -1 21862 2.5283843278884888e-03</internalNodes>
      <leafValues>
        -5.9388559311628342e-02 2.9732397198677063e-01</leafValues></_>
    <_>
      <internalNodes>
        0 -1 23416 9.6176506485790014e-04</internalNodes>
      <leafValues>
        1.0278618335723877e-01 -1.8195606768131256e-01</leafValues></_>
    <_>
      <internalNodes>
        0 -1 141704 3.9017436210997403e-04</internalNodes>
      <leafValues>
        7.7667891979217529e-02 -2.2055554389953613e-01</leafValues></_>
    <_>
      <internalNodes>
        0 -1 139776 8.3586142864078283e-04</internalNodes>
      <leafValues>
        -5.5990148335695267e-02 3.1838688254356384e-01</leafValues></_>
    <_>
      <internalNodes>
        0 -1 139416 -6.7692989250645041e-04</internalNodes>
      <leafValues>
        2.2411239147186279e-01 -8.8430874049663544e-02</leafValues></_>
    <_>
      <internalNodes>
        0 -1 141700 -5.3753261454403400e-04</internalNodes>
      <leafValues>
        -3.1195563077926636e-01 7.1523204445838928e-02</leafValues></_>
    <_>
      <internalNodes>
        0 -1 87670 -1.5515425475314260e-03</internalNodes>
      <leafValues>
        -3.1148859858512878e-01 5.5766299366950989e-02</leafValues></_>
    <_>
      <internalNodes>
        0 -1 138360 -1.3989512808620930e-03</internalNodes>
      <leafValues>
        -2.2437487542629242e-01 7.9378470778465271e-02</leafValues></_>
    <_>
      <internalNodes>
        0 -1 87992 -1.5757171204313636e-03</internalNodes>
      <leafValues>
        1.6011188924312592e-01 -1.1568810045719147e-01</leafValues></_>
    <_>
      <internalNodes>
        0 -1 44625 -7.9129089135676622e-04</internalNodes>
      <leafValues>
        -1.8279917538166046e-01 1.0536942631006241e-01</leafValues></_>
    <_>
      <internalNodes>
        0 -1 68701 -1.4513763599097729e-03</internalNodes>
      <leafValues>
        2.3265853524208069e-01 -7.2035826742649078e-02</leafValues></_>
    <_>
      <internalNodes>
        0 -1 10955 -2.5241065770387650e-02</internalNodes>
      <leafValues>
        -3.0960899591445923e-01 5.6470096111297607e-02</leafValues></_>
    <_>
      <internalNodes>
        0 -1 81076 -1.5224561793729663e-03</internalNodes>
      <leafValues>
        2.0324172079563141e-01 -8.6221411824226379e-02</leafValues></_>
    <_>
      <internalNodes>
        0 -1 101219 4.7595193609595299e-03</internalNodes>
      <leafValues>
        -8.2883507013320923e-02 3.1866088509559631e-01</leafValues></_>
    <_>
      <internalNodes>
        0 -1 9129 6.1350554227828979e-02</internalNodes>
      <leafValues>
        4.9338631331920624e-02 -4.6684992313385010e-01</leafValues></_>
    <_>
      <internalNodes>
        0 -1 15417 1.6911590937525034e-03</internalNodes>
      <leafValues>
        -1.4224828779697418e-01 1.2917938828468323e-01</leafValues></_>
    <_>
      <internalNodes>
        0 -1 41858 2.9417131096124649e-02</internalNodes>
      <leafValues>
        2.6080219075083733e-02 -7.6303648948669434e-01</leafValues></_>
    <_>
      <internalNodes>
        0 -1 138196 -5.9332617092877626e-04</internalNodes>
      <leafValues>
        -2.8777807950973511e-01 5.7153824716806412e-02</leafValues></_>
    <_>
      <internalNodes>
        0 -1 137764 -1.4645138435298577e-05</internalNodes>
      <leafValues>
        1.3317945599555969e-01 -1.3003027439117432e-01</leafValues></_>
    <_>
      <internalNodes>
        0 -1 103914 3.6533273756504059e-02</internalNodes>
      <leafValues>
        2.4744167923927307e-02 -7.1151828765869141e-01</leafValues></_>
    <_>
      <internalNodes>
        0 -1 68701 1.6183690167963505e-03</internalNodes>
      <leafValues>
        -7.0517905056476593e-02 2.7781695127487183e-01</leafValues></_>
    <_>
      <internalNodes>
        0 -1 138747 -1.5213737242447678e-05</internalNodes>
      <leafValues>
        1.1329236626625061e-01 -1.5095266699790955e-01</leafValues></_>
    <_>
      <internalNodes>
        0 -1 123181 -8.0275081563740969e-04</internalNodes>
      <leafValues>
        -3.0830776691436768e-01 6.0076151043176651e-02</leafValues></_>
    <_>
      <internalNodes>
        0 -1 121882 -1.4886293560266495e-02</internalNodes>
      <leafValues>
        6.3902610540390015e-01 -3.2185226678848267e-02</leafValues></_>
    <_>
      <internalNodes>
        0 -1 2490 2.0306286751292646e-04</internalNodes>
      <leafValues>
        8.3758749067783356e-02 -2.0850424468517303e-01</leafValues></_></weakClassifiers></stage10>
</opencv_storage>
