<?xml version="1.0"?>
<opencv_storage>
<stage6>
  <maxWeakCount>55</maxWeakCount>
  <stageThreshold>-1.3632256984710693e+00</stageThreshold>
  <weakClassifiers>
    <_>
      <internalNodes>
        0 -1 162954 6.4650253625586629e-04</internalNodes>
      <leafValues>
        -2.2146050631999969e-01 2.8090736269950867e-01</leafValues></_>
    <_>
      <internalNodes>
        0 -1 11019 2.6644989848136902e-01</internalNodes>
      <leafValues>
        8.2567207515239716e-02 -5.1915937662124634e-01</leafValues></_>
    <_>
      <internalNodes>
        0 -1 43267 -1.9748727791011333e-03</internalNodes>
      <leafValues>
        3.1489166617393494e-01 -1.3276551663875580e-01</leafValues></_>
    <_>
      <internalNodes>
        0 -1 43256 1.0304007446393371e-03</internalNodes>
      <leafValues>
        -1.1954823881387711e-01 3.8896912336349487e-01</leafValues></_>
    <_>
      <internalNodes>
        0 -1 87457 6.1335874488577247e-04</internalNodes>
      <leafValues>
        -2.0710787177085876e-01 1.9405131042003632e-01</leafValues></_>
    <_>
      <internalNodes>
        0 -1 138349 6.2457863241434097e-03</internalNodes>
      <leafValues>
        1.0957852751016617e-01 -4.6256420016288757e-01</leafValues></_>
    <_>
      <internalNodes>
        0 -1 122759 2.9310820536920801e-05</internalNodes>
      <leafValues>
        -3.1352102756500244e-01 1.2693178653717041e-01</leafValues></_>
    <_>
      <internalNodes>
        0 -1 138472 -9.4170588999986649e-03</internalNodes>
      <leafValues>
        2.6902258396148682e-01 -1.4399898052215576e-01</leafValues></_>
    <_>
      <internalNodes>
        0 -1 62794 5.9632945805788040e-02</internalNodes>
      <leafValues>
        9.9171742796897888e-02 -5.5103206634521484e-01</leafValues></_>
    <_>
      <internalNodes>
        0 -1 101875 4.4535184279084206e-03</internalNodes>
      <leafValues>
        -1.0276661068201065e-01 4.1831362247467041e-01</leafValues></_>
    <_>
      <internalNodes>
        0 -1 60308 -4.7903917729854584e-03</internalNodes>
      <leafValues>
        3.8763445615768433e-01 -8.8918045163154602e-02</leafValues></_>
    <_>
      <internalNodes>
        0 -1 162111 4.3872278183698654e-04</internalNodes>
      <leafValues>
        1.0279302299022675e-01 -3.8633608818054199e-01</leafValues></_>
    <_>
      <internalNodes>
        0 -1 152537 7.3717429768294096e-04</internalNodes>
      <leafValues>
        -1.5157055854797363e-01 2.6185911893844604e-01</leafValues></_>
    <_>
      <internalNodes>
        0 -1 17314 -5.7946103624999523e-03</internalNodes>
      <leafValues>
        4.5169198513031006e-01 -1.0236585140228271e-01</leafValues></_>
    <_>
      <internalNodes>
        0 -1 16558 3.3745695836842060e-03</internalNodes>
      <leafValues>
        -1.2036335468292236e-01 3.3218589425086975e-01</leafValues></_>
    <_>
      <internalNodes>
        0 -1 175440 5.7511194609105587e-03</internalNodes>
      <leafValues>
        -8.4312207996845245e-02 4.5691713690757751e-01</leafValues></_>
    <_>
      <internalNodes>
        0 -1 175571 -7.7258870005607605e-03</internalNodes>
      <leafValues>
        4.5122432708740234e-01 -9.3236826360225677e-02</leafValues></_>
    <_>
      <internalNodes>
        0 -1 85639 -2.8771110810339451e-03</internalNodes>
      <leafValues>
        -3.6065939068794250e-01 1.0435912758111954e-01</leafValues></_>
    <_>
      <internalNodes>
        0 -1 151122 -5.7645898777991533e-04</internalNodes>
      <leafValues>
        2.6427069306373596e-01 -1.4522166550159454e-01</leafValues></_>
    <_>
      <internalNodes>
        0 -1 150606 -5.2843634039163589e-03</internalNodes>
      <leafValues>
        -5.7960045337677002e-01 6.2800541520118713e-02</leafValues></_>
    <_>
      <internalNodes>
        0 -1 21319 -1.2250158470124006e-03</internalNodes>
      <leafValues>
        2.2452527284622192e-01 -1.5459948778152466e-01</leafValues></_>
    <_>
      <internalNodes>
        0 -1 66857 -1.5172285493463278e-03</internalNodes>
      <leafValues>
        2.5302556157112122e-01 -1.4182913303375244e-01</leafValues></_>
    <_>
      <internalNodes>
        0 -1 150271 -1.8710874021053314e-02</internalNodes>
      <leafValues>
        -6.4422082901000977e-01 5.9806957840919495e-02</leafValues></_>
    <_>
      <internalNodes>
        0 -1 65424 -6.8795727565884590e-03</internalNodes>
      <leafValues>
        -6.0876375436782837e-01 3.5577811300754547e-02</leafValues></_>
    <_>
      <internalNodes>
        0 -1 107958 -8.8395382044836879e-04</internalNodes>
      <leafValues>
        2.5435930490493774e-01 -1.3909786939620972e-01</leafValues></_>
    <_>
      <internalNodes>
        0 -1 151911 1.4371806755661964e-02</internalNodes>
      <leafValues>
        7.2027318179607391e-02 -5.3287136554718018e-01</leafValues></_>
    <_>
      <internalNodes>
        0 -1 175690 5.5039809085428715e-03</internalNodes>
      <leafValues>
        -1.1225534975528717e-01 3.2999202609062195e-01</leafValues></_>
    <_>
      <internalNodes>
        0 -1 124618 -8.7383494246751070e-04</internalNodes>
      <leafValues>
        2.4483972787857056e-01 -1.4522217214107513e-01</leafValues></_>
    <_>
      <internalNodes>
        0 -1 139316 -9.3073742464184761e-03</internalNodes>
      <leafValues>
        -4.9694532155990601e-01 6.5736792981624603e-02</leafValues></_>
    <_>
      <internalNodes>
        0 -1 18036 2.7670180425047874e-03</internalNodes>
      <leafValues>
        -6.7788831889629364e-02 5.5298966169357300e-01</leafValues></_>
    <_>
      <internalNodes>
        0 -1 151844 1.4741858467459679e-03</internalNodes>
      <leafValues>
        1.0507716238498688e-01 -3.1140059232711792e-01</leafValues></_>
    <_>
      <internalNodes>
        0 -1 126712 1.8063510069623590e-03</internalNodes>
      <leafValues>
        -8.5008561611175537e-02 4.1870826482772827e-01</leafValues></_>
    <_>
      <internalNodes>
        0 -1 4 -3.3396811340935528e-04</internalNodes>
      <leafValues>
        -2.7023527026176453e-01 1.2725855410099030e-01</leafValues></_>
    <_>
      <internalNodes>
        0 -1 88424 -1.1691927211359143e-03</internalNodes>
      <leafValues>
        2.5880962610244751e-01 -1.2478686124086380e-01</leafValues></_>
    <_>
      <internalNodes>
        0 -1 88750 6.5841171890497208e-03</internalNodes>
      <leafValues>
        7.2986535727977753e-02 -4.6059575676918030e-01</leafValues></_>
    <_>
      <internalNodes>
        0 -1 18036 -2.1908981725573540e-03</internalNodes>
      <leafValues>
        4.6113041043281555e-01 -7.8467816114425659e-02</leafValues></_>
    <_>
      <internalNodes>
        0 -1 123873 6.7245418904349208e-04</internalNodes>
      <leafValues>
        -1.2804293632507324e-01 2.4632298946380615e-01</leafValues></_>
    <_>
      <internalNodes>
        0 -1 118254 -3.0379067175090313e-03</internalNodes>
      <leafValues>
        3.0138137936592102e-01 -1.0536556690931320e-01</leafValues></_>
    <_>
      <internalNodes>
        0 -1 20674 -3.6270678043365479e-02</internalNodes>
      <leafValues>
        -5.3167420625686646e-01 6.3662998378276825e-02</leafValues></_>
    <_>
      <internalNodes>
        0 -1 139010 2.9851536964997649e-05</internalNodes>
      <leafValues>
        -1.6693466901779175e-01 1.8330609798431396e-01</leafValues></_>
    <_>
      <internalNodes>
        0 -1 10029 -3.1341746449470520e-01</internalNodes>
      <leafValues>
        -6.2988454103469849e-01 5.2739661186933517e-02</leafValues></_>
    <_>
      <internalNodes>
        0 -1 123295 4.1458284249529243e-04</internalNodes>
      <leafValues>
        -1.9854892790317535e-01 1.6001875698566437e-01</leafValues></_>
    <_>
      <internalNodes>
        0 -1 152003 9.0701028238981962e-04</internalNodes>
      <leafValues>
        -1.5888719260692596e-01 2.1122568845748901e-01</leafValues></_>
    <_>
      <internalNodes>
        0 -1 4 2.2098521003499627e-04</internalNodes>
      <leafValues>
        1.2274690717458725e-01 -2.7482399344444275e-01</leafValues></_>
    <_>
      <internalNodes>
        0 -1 137592 -5.2911834791302681e-03</internalNodes>
      <leafValues>
        -6.2796205282211304e-01 4.7434981912374496e-02</leafValues></_>
    <_>
      <internalNodes>
        0 -1 175664 -3.0389353632926941e-03</internalNodes>
      <leafValues>
        6.3369178771972656e-01 -5.5172432214021683e-02</leafValues></_>
    <_>
      <internalNodes>
        0 -1 105348 2.1401282865554094e-03</internalNodes>
      <leafValues>
        8.8195458054542542e-02 -3.5583007335662842e-01</leafValues></_>
    <_>
      <internalNodes>
        0 -1 167766 -8.6450502276420593e-03</internalNodes>
      <leafValues>
        2.8685051202774048e-01 -1.0521075129508972e-01</leafValues></_>
    <_>
      <internalNodes>
        0 -1 12408 -1.7703104764223099e-02</internalNodes>
      <leafValues>
        2.9914939403533936e-01 -1.0210500657558441e-01</leafValues></_>
    <_>
      <internalNodes>
        0 -1 37053 7.4713885784149170e-02</internalNodes>
      <leafValues>
        5.0190094858407974e-02 -6.3880598545074463e-01</leafValues></_>
    <_>
      <internalNodes>
        0 -1 178152 -2.6011168956756592e-03</internalNodes>
      <leafValues>
        4.8039990663528442e-01 -6.6047288477420807e-02</leafValues></_>
    <_>
      <internalNodes>
        0 -1 72442 -6.5077647566795349e-02</internalNodes>
      <leafValues>
        -6.0679101943969727e-01 4.9614131450653076e-02</leafValues></_>
    <_>
      <internalNodes>
        0 -1 36054 1.9661492109298706e-01</internalNodes>
      <leafValues>
        -4.8880390822887421e-02 6.4023458957672119e-01</leafValues></_>
    <_>
      <internalNodes>
        0 -1 106205 1.8839691765606403e-03</internalNodes>
      <leafValues>
        6.0182522982358932e-02 -5.4281651973724365e-01</leafValues></_>
    <_>
      <internalNodes>
        0 -1 101219 2.8568739071488380e-03</internalNodes>
      <leafValues>
        -1.0639556497335434e-01 2.8566002845764160e-01</leafValues></_></weakClassifiers></stage6>
</opencv_storage>
